/*
 * nnconfig.h
 *
 *  Created on: Sep 29, 2021
 *      Author: kang
 */

#ifndef INC_NNCONFIG_H_
#define INC_NNCONFIG_H_
int linear_num = 3;
int linear1_in_dim = 4;
int linear1_out_dim = 16;
float linear1_weight[16][4] = {
		{-0.5383420586585999,-0.5309560894966125,-0.25446978211402893,0.14638251066207886},
		{-0.6137142181396484,-0.777225911617279,0.3396690785884857,-0.4767206907272339},
		{-0.4238300919532776,-0.06967296451330185,0.9768553376197815,0.005251146387308836},
		{-0.09204614907503128,-0.7829193472862244,0.0282137431204319,-0.8226634860038757},
		{0.14558592438697815,0.014963698573410511,-0.2597793638706207,-0.16788963973522186},
		{0.6319575905799866,0.17510740458965302,0.13285274803638458,-0.38955453038215637},
		{0.5413457751274109,0.36799749732017517,-0.04309210926294327,-0.6807413697242737},
		{0.7805742025375366,-0.16180658340454102,-0.21773603558540344,-0.5186927914619446},
		{-0.47670331597328186,0.5915735960006714,-0.8086271286010742,0.2758735120296478},
		{-0.3051149249076843,-0.48979270458221436,-0.29822999238967896,0.21205219626426697},
		{-0.503650963306427,-0.7425872683525085,-0.0701259970664978,-0.2889185845851898},
		{0.21770644187927246,0.8202164173126221,0.10723995417356491,-0.19593925774097443},
		{0.6685282588005066,0.16576285660266876,0.3345962166786194,-0.7279812693595886},
		{0.1024300828576088,0.22077937424182892,-0.2939457893371582,0.4332631528377533},
		{-0.1639963686466217,0.39272937178611755,0.5400647521018982,0.6729981899261475},
		{-0.2846575081348419,-0.37021031975746155,-0.39448070526123047,0.5608872175216675}
};

float linear1_bias[16] = {0.29200634360313416,0.5253841876983643,0.3938066363334656,-0.22483229637145996,0.6414204835891724,0.404050350189209,0.10309058427810669,-0.6280871033668518,0.35846301913261414,0.36541488766670227,-0.14000575244426727,0.9718740582466125,0.37310510873794556,0.5465474724769592,-0.004513440653681755,-0.2199903130531311};

int linear2_in_dim = 16;
int linear2_out_dim = 32;
float linear2_weight[32][16] = {
		{0.04004399850964546,0.21920527517795563,-0.3275895416736603,-0.16067272424697876,0.022402111440896988,-0.07874268293380737,0.44830483198165894,0.1269417107105255,0.08586810529232025,0.372365266084671,0.42646580934524536,-0.13299055397510529,0.433398574590683,-0.20851470530033112,-0.4077683687210083,0.0004731885564979166},
		{-0.33604398369789124,0.07837525755167007,0.2456720620393753,-0.07138217240571976,0.3107447326183319,0.22635643184185028,0.2990662157535553,0.27627086639404297,-0.7678139805793762,-0.2906685471534729,-0.3468526005744934,0.22234001755714417,0.5093793869018555,-0.08645286411046982,-0.4092424809932709,-0.12973374128341675},
		{-0.07005481421947479,0.2954051196575165,0.5902528762817383,0.5915355682373047,-0.3387857675552368,-0.43954479694366455,-0.26449617743492126,-1.6791152954101562,0.24887651205062866,-0.2091452032327652,-0.01488866563886404,0.556431770324707,-0.46288973093032837,-0.6007218956947327,0.595636785030365,-0.19695082306861877},
		{0.1753935068845749,0.32175493240356445,-0.6222124695777893,-0.1547098308801651,0.07619088888168335,0.04629586264491081,0.15725940465927124,0.08184928447008133,0.18223580718040466,0.14744433760643005,0.42553552985191345,-0.5268499255180359,0.27301883697509766,0.2224058359861374,-0.7262097001075745,-0.061302803456783295},
		{0.24040371179580688,0.062169287353754044,-0.023031165823340416,-0.3760562837123871,-0.10087542235851288,-0.10311989486217499,0.433199405670166,0.14033570885658264,-0.042799174785614014,0.07842177152633667,0.2830290198326111,-0.007809791713953018,0.5656387805938721,-0.020571965724229813,-0.8057171702384949,0.26516440510749817},
		{0.3372713625431061,0.1310056895017624,-0.3213805556297302,-0.07040133327245712,-0.04034015163779259,0.22853299975395203,0.504949152469635,0.21108585596084595,-0.08737700432538986,0.2890017032623291,0.38360396027565,0.0042014652863144875,0.1677098274230957,0.11285089701414108,-0.9014345407485962,0.02709357999265194},
		{-0.16820162534713745,-0.10048457235097885,0.4481005370616913,-0.013215642422437668,-0.0683194100856781,0.3595379889011383,0.37189042568206787,0.2963065207004547,-0.7175084352493286,-0.24190206825733185,-0.3375966548919678,0.30239641666412354,0.2957151234149933,0.11895751953125,-0.2921547591686249,-0.12796802818775177},
		{-0.13001775741577148,-0.6880640983581543,-0.552714467048645,0.37438008189201355,0.1005692332983017,0.11606235057115555,0.14395096898078918,-0.10877752304077148,0.5609952211380005,0.2289930284023285,-0.6776944994926453,0.3086692690849304,-0.08952411264181137,0.505693793296814,-0.06521188467741013,0.08508909493684769},
		{0.328132301568985,0.203142449259758,-0.08653857558965683,-0.48336461186408997,0.21310412883758545,0.09886183589696884,0.5619919300079346,0.0024826887529343367,0.016094671562314034,0.027817318215966225,0.356478214263916,-0.2886268198490143,0.12543167173862457,0.19982734322547913,0.03570104017853737,0.33231592178344727},
		{-0.15041086077690125,-0.6637978553771973,0.24155916273593903,-0.9229468107223511,0.09182741492986679,-0.04203040152788162,-0.745448887348175,-1.7558784484863281,0.41816362738609314,0.01008512917906046,-0.8993940353393555,0.6773638129234314,-0.17823109030723572,0.4647365212440491,0.37166059017181396,-0.24986222386360168},
		{0.21960006654262543,0.10759870707988739,-0.5699270963668823,-0.46793314814567566,0.28308889269828796,-0.03907711058855057,0.0758085548877716,-0.15639370679855347,0.06417962908744812,0.29346150159835815,0.00211700308136642,-0.4380803108215332,0.3489868938922882,0.12444644421339035,0.09914068877696991,0.2463976889848709},
		{0.09666719287633896,-0.0653916746377945,-0.22983267903327942,-0.3485906720161438,0.033474117517471313,-0.0002835824270732701,0.5219273567199707,0.08755618333816528,-0.05764797702431679,0.35436734557151794,0.33096015453338623,-0.14807812869548798,0.32107484340667725,0.4109479784965515,-0.02041367068886757,0.04664808511734009},
		{-0.294942170381546,-0.2879445254802704,0.1636601835489273,0.40407294034957886,0.321301132440567,0.0036487155593931675,-0.20077353715896606,-2.467602252960205,0.5067883729934692,-0.2296091914176941,-0.6827031373977661,0.6925364136695862,-0.44228890538215637,0.1713671088218689,0.2125878930091858,-0.08688580989837646},
		{0.03906828910112381,-0.0891450047492981,0.4953773319721222,0.47277727723121643,0.10794903337955475,0.28129133582115173,-0.8963879942893982,0.1441771388053894,0.02785496599972248,0.028075845912098885,-0.16689732670783997,0.5866124629974365,-0.7340652942657471,-0.13264556229114532,0.219079852104187,-0.17774571478366852},
		{0.17862707376480103,0.30179235339164734,-0.5534830093383789,-0.13779892027378082,0.1123669445514679,0.1295778900384903,-0.012087835930287838,-0.030529016628861427,0.10525601357221603,-0.0598437674343586,0.12677647173404694,-0.11551652103662491,-0.05704938992857933,-0.09321922808885574,-0.7077663540840149,0.27789613604545593},
		{0.4236092269420624,-0.13557268679141998,-0.5414400100708008,-0.42919984459877014,-0.09668409824371338,0.11802788078784943,0.5813615918159485,-0.18201234936714172,-0.05345544219017029,0.1382017731666565,0.514987051486969,-0.7233541011810303,0.20070065557956696,0.31161966919898987,0.11365413665771484,0.3329409658908844},
		{-0.3109511435031891,-1.2351963520050049,-0.3973744511604309,-0.2612517476081848,0.1384940892457962,0.3544144034385681,-0.4212716519832611,0.03774958476424217,0.6105140447616577,0.07507356256246567,-0.7089477181434631,0.7236339449882507,-0.38491740822792053,0.422491192817688,-0.004692156333476305,0.09181942790746689},
		{0.011786268092691898,0.3702525496482849,1.012122631072998,0.4390995502471924,-0.26532575488090515,-0.31413671374320984,-1.3199341297149658,-0.2698249816894531,-0.15117909014225006,0.025712184607982635,0.3019554913043976,0.29872485995292664,-1.219096302986145,-0.44072791934013367,0.19321754574775696,-0.17133408784866333},
		{-0.2177930474281311,0.06669416278600693,0.21488846838474274,0.2389889359474182,0.34491246938705444,0.2312237024307251,-0.3734111785888672,-1.1968575716018677,0.18706563115119934,0.13920776546001434,-0.5525801777839661,0.5265113115310669,-0.6391252875328064,0.19835340976715088,0.05234314501285553,-0.48453864455223083},
		{0.38571083545684814,0.037138763815164566,-0.26891133189201355,-0.314191073179245,-0.003510597627609968,-0.039269644767045975,0.36150985956192017,-0.19268281757831573,0.03374599292874336,-0.053397540003061295,0.2633726894855499,-0.1397429257631302,0.5162592530250549,0.3575863838195801,0.06580068916082382,0.1776403784751892},
		{0.3565751612186432,0.23416654765605927,-0.34338685870170593,-0.4938541352748871,-0.13061480224132538,0.15762615203857422,0.5581105351448059,-0.1418759673833847,-0.14928744733333588,0.17222049832344055,0.09743534028530121,-0.18676792085170746,0.3849412202835083,0.23674903810024261,-0.04636295512318611,0.4107498228549957},
		{0.17366336286067963,0.12582696974277496,-0.5823661088943481,-0.32819968461990356,0.20064301788806915,0.12169161438941956,0.3702564537525177,-0.0869031548500061,0.17774099111557007,0.2959756553173065,0.3050897419452667,-0.4507230520248413,0.02474137581884861,0.1338963359594345,-0.7104411721229553,-0.05482802540063858},
		{-0.05548996105790138,-2.1039438247680664,-0.5519152283668518,-0.18590044975280762,-0.32678356766700745,-0.23486286401748657,0.364656537771225,-0.6051947474479675,0.49878770112991333,0.3418165147304535,-0.7496597170829773,-0.20274335145950317,0.18300968408584595,0.045205891132354736,-0.09503229707479477,0.2653020918369293},
		{0.060449495911598206,0.15192680060863495,-0.16691848635673523,-0.17918546497821808,0.24795888364315033,-0.09512859582901001,0.36910492181777954,0.028605559840798378,-0.2583944499492645,0.36232560873031616,0.48544520139694214,-0.2483651340007782,0.3899708092212677,0.12820424139499664,0.18949487805366516,0.3656039237976074},
		{-0.07368630915880203,0.22875355184078217,0.7377002239227295,0.7116557955741882,-0.07041557878255844,-0.101532943546772,-0.2432413399219513,0.00010520743671804667,0.12868410348892212,-0.15118283033370972,0.22921894490718842,0.35875093936920166,-0.09824946522712708,-0.2973572313785553,0.1775071620941162,-0.3033703565597534},
		{-0.14624883234500885,0.06918441504240036,0.3543514013290405,0.06518763303756714,-0.09095871448516846,0.3558979332447052,0.6376345753669739,0.15123559534549713,-0.8055692315101624,-0.19858287274837494,0.061504364013671875,0.37341204285621643,0.36885279417037964,-0.23209965229034424,-0.44478169083595276,0.17847158014774323},
		{0.3362463116645813,0.15474294126033783,-0.08378375321626663,-0.4462222456932068,0.12804143130779266,-0.07412605732679367,0.3080097734928131,0.04240414872765541,-0.20626752078533173,0.12769882380962372,0.01789366640150547,-0.32378679513931274,0.3675503730773926,0.19402889907360077,0.12063392996788025,0.1559135913848877},
		{0.01850127801299095,0.368844598531723,0.7819913029670715,0.2850654721260071,-0.2629469037055969,0.038210947066545486,-1.0204917192459106,-0.4400646686553955,-0.4049709439277649,0.11618083715438843,0.3957088887691498,-0.25699979066848755,-1.7203552722930908,-0.5394052863121033,-0.04393966123461723,-0.12899695336818695},
		{-0.006243503652513027,0.12534655630588531,0.7266455888748169,0.560874342918396,-0.08343999832868576,-0.1977817714214325,-0.7243316173553467,-0.3415864408016205,0.038367290049791336,0.03254779428243637,-0.28397494554519653,0.4807523488998413,-0.8803097009658813,-0.06318698823451996,0.1186002641916275,-0.07559565454721451},
		{-0.05384555831551552,0.18317700922489166,0.40215829014778137,0.5305173397064209,0.1417904943227768,-0.1625693142414093,-0.2945384383201599,-0.19633589684963226,0.18103352189064026,-0.209092915058136,-0.015839023515582085,0.4369056820869446,-0.4031490087509155,0.2617625594139099,0.3688894510269165,-0.27421459555625916},
		{-0.05593809112906456,0.26318734884262085,-0.5113020539283752,-0.2373582124710083,0.21062207221984863,-0.009597526863217354,0.2651129961013794,0.22008170187473297,-0.26374125480651855,0.3614659607410431,0.16105671226978302,-0.10346521437168121,0.5205463171005249,0.08352529257535934,0.18168261647224426,0.27744996547698975},
		{-0.17847254872322083,-0.1426444947719574,0.46702200174331665,-0.18900898098945618,-0.12864674627780914,0.328210711479187,0.4950096905231476,0.36869919300079346,-0.7694075107574463,-0.2732904255390167,-0.29965099692344666,0.3035295605659485,0.4693559408187866,-0.19899947941303253,-0.35857218503952026,0.05785239860415459}
};

float linear2_bias[32] = {0.013637533411383629,0.15503819286823273,-0.19427607953548431,0.17468348145484924,-0.05668606981635094,-0.06299522519111633,-0.1620452105998993,0.2599678337574005,0.062160976231098175,0.5744497776031494,0.32507529854774475,0.12224334478378296,0.5222813487052917,0.3112395405769348,0.20746485888957977,0.4143591523170471,0.09778032451868057,-0.18720664083957672,0.47270211577415466,0.16804014146327972,0.31431469321250916,-0.03986747935414314,-0.17048153281211853,0.18021152913570404,0.2364448755979538,-0.06907448172569275,0.20591817796230316,-0.1563863754272461,0.14568880200386047,0.3591090440750122,0.2512054741382599,0.06972896307706833};

int linear3_in_dim = 32;
int linear3_out_dim = 2;
float linear3_weight[2][32] = {
		{0.15629218518733978,0.4416967034339905,-0.9652999639511108,0.35786837339401245,0.3770275413990021,0.24012191593647003,0.4515382647514343,-0.48246097564697266,0.059403687715530396,-0.9483903646469116,0.35842815041542053,0.1496008336544037,-0.9808632135391235,-0.5487417578697205,0.16914094984531403,0.4219845235347748,-0.9467409253120422,-0.9317806959152222,-1.3392176628112793,0.10809152573347092,0.36920079588890076,0.4378163516521454,-1.5923749208450317,0.05108556151390076,-0.5819694995880127,0.6032606363296509,0.3871748447418213,-0.8560709953308105,-0.27646055817604065,-0.19743214547634125,0.10075215995311737,0.3464142680168152},
		{-0.19667865335941315,-0.33053016662597656,0.8370298743247986,-0.13725972175598145,-0.18376265466213226,-0.23406252264976501,-0.5112777352333069,0.5362870693206787,-0.30478423833847046,0.9128967523574829,-0.37716737389564514,-0.363202840089798,0.9268612265586853,0.7032526135444641,-0.28506869077682495,-0.30887043476104736,1.019963264465332,1.004460096359253,1.3008595705032349,-0.35743650794029236,-0.10967545211315155,-0.4770137071609497,1.6231927871704102,-0.28198084235191345,0.5821015238761902,-0.4123830497264862,-0.03305695578455925,0.7502739429473877,0.16373534500598907,0.3794381320476532,-0.2171211838722229,-0.6070181131362915}
};

float linear3_bias[2] = {0.10456439852714539,0.059482961893081665};

#endif /* INC_NNCONFIG_H_ */